version 1
input_dim 32
hidden0 64
hidden1 32
mean 0.23063540458679199 0.76936459541320801 0.45009982585906982 0.3891233503818512 0.3847196102142334 0.76739299297332764 0.094383440911769867 0.25535786151885986 0.53029388189315796 0.072092153131961823 0.069786891341209412 0.061056643724441528 -0.21745051443576813 2.7279906272888184 0.099025294184684753 0.3993680477142334 3.6333696842193604 0.27571499347686768 0.44994467496871948 0.44499221444129944 0.44876518845558167 0.44970598816871643 0.17207475006580353 0.27550134062767029 0.28063726425170898 0.94362187385559082 0.26775780320167542 0.19818452000617981 0.082556150853633881 0.3993680477142334 0 1
std 0.42189422249794006 0.42189422249794006 0.27595570683479309 0.44488942623138428 0.24788679182529449 0.49863937497138977 0.16012680530548096 0.44813019037246704 0.44444665312767029 0.052855521440505981 0.049810785800218582 0.041522756218910217 2.1730456352233887 2.6739966869354248 1.9844037294387817 0.34908795356750488 2.4627952575683594 0.19870796799659729 0.38807162642478943 0.38025841116905212 0.41529056429862976 0.41505059599876404 0.17547227442264557 0.25348889827728271 0.25251084566116333 0.035149537026882172 0.13221849501132965 0.58857631683349609 0.25546503067016602 0.34908795356750488 9.9999999747524271e-07 9.9999999747524271e-07
w0 0.10522212088108063 -0.029394682496786118 0.061229340732097626 0.10678183287382126 0.024200398474931717 -0.1049112007021904 0.095665141940116882 0.093773148953914642 0.066197998821735382 0.033248011022806168 0.10972272604703903 0.017250088974833488 -0.12179765850305557 -0.034680213779211044 0.15664628148078918 0.10616325587034225 0.12561419606208801 0.15299579501152039 0.015652846544981003 0.011571413837373257 -0.10926486551761627 0.12640237808227539 0.088869929313659668 0.052451189607381821 0.16823075711727142 0.18097859621047974 0.011925584636628628 -0.064828887581825256 -0.012887870892882347 -0.040336742997169495 -0.057957082986831665 -0.01297982782125473 -0.045718293637037277 -0.045775178819894791 0.099939286708831787 -0.1806291937828064 0.13733574748039246 0.053705103695392609 -0.14783023297786713 -0.079741530120372772 -0.018150394782423973 0.020056718960404396 0.05604841560125351 0.22109442949295044 0.20873716473579407 0.074743606150150299 -0.085167072713375092 0.1829855889081955 -0.10229311883449554 0.16224095225334167 0.077018149197101593 -0.054861456155776978 -0.087619289755821228 -0.051953669637441635 0.15715295076370239 -0.0054616876877844334 -0.054371524602174759 -0.080340862274169922 0.053282372653484344 0.09057917445898056 -0.11288315057754517 0.2071065753698349 -0.061015807092189789 -0.030622571706771851 -0.101024329662323 0.23954145610332489 -0.12468189001083374 0.060325872153043747 -0.092928774654865265 0.077194541692733765 0.034811783581972122 -0.12194020301103592 -0.25660154223442078 0.12714022397994995 0.087211057543754578 0.1301422119140625 0.1380746066570282 -0.17284692823886871 -0.060444414615631104 -0.16427785158157349 0.080420523881912231 -0.13282491266727448 0.025123320519924164 -0.046960912644863129 -0.090297922492027283 0.038491614162921906 -0.17290765047073364 0.15415927767753601 0.094766892492771149 -0.20560643076896667 -0.199442058801651 -0.096525341272354126 -0.25440886616706848 -0.003506787121295929 0.11124886572360992 -0.11660131067037582 -0.048133924603462219 -0.1003074124455452 0.14022278785705566 -0.1765962541103363 0.02206026017665863 0.091063432395458221 0.16241930425167084 -0.15780618786811829 0.018197644501924515 -0.25061938166618347 -0.21691176295280457 -0.25210165977478027 0.018617711961269379 0.0052535003051161766 -0.13493426144123077 -0.08278772234916687 0.046194735914468765 0.10838321596384048 -0.037481404840946198 -0.016486426815390587 0.17145639657974243 0.014865227974951267 -0.11544136703014374 0.060056127607822418 -0.029648492112755775 0.078859709203243256 0.14761306345462799 0.22761940956115723 0.080023422837257385 -0.086784988641738892 0.021407850086688995 0.10431499779224396 0.045022562146186829 -0.079520575702190399 0.19993555545806885 -0.099367566406726837 0.019015969708561897 0.065162546932697296 0.19937050342559814 0.022917779162526131 0.057915549725294113 0.13789337873458862 0.043965261429548264 -0.10655763000249863 0.17541614174842834 0.042837467044591904 0.1355610191822052 0.17082850635051727 0.13586999475955963 0.086383171379566193 -0.01595795713365078 0.035536628216505051 0.080648049712181091 -0.097925864160060883 -0.011784665286540985 -0.18464918434619904 0.11734168231487274 -0.097523808479309082 0.05108870193362236 0.16189910471439362 -0.084623366594314575 0.07409060001373291 0.041330620646476746 -0.17405739426612854 -0.017846753820776939 -0.1027042418718338 -0.082615680992603302 -0.068027272820472717 -0.14673708379268646 -0.038423486053943634 0.0036385371349751949 -0.0072684572078287601 0.028700564056634903 0.12886597216129303 -0.21467053890228271 -0.11032743752002716 -0.038699876517057419 0.17316298186779022 -0.15644466876983643 -0.014932314865291119 0.11169074475765228 -0.1485779881477356 -0.012001983821392059 -0.14449654519557953 0.13863475620746613 -0.046202681958675385 -0.012909323908388615 0.035127468407154083 0.15230338275432587 -0.083069108426570892 0.0019893154967576265 -0.040553249418735504 0.11274164170026779 -0.04066544771194458 0.01352526992559433 0.011198904365301132 0.067674122750759125 0.16503192484378815 0.025597019121050835 0.092953585088253021 -0.040649820119142532 -0.1392047107219696 0.055227693170309067 0.083532199263572693 -0.13364751636981964 0.19097393751144409 -0.15435080230236053 -0.12789168953895569 0.050352424383163452 -0.059766750782728195 0.00055367802269756794 -0.16315194964408875 0.12655819952487946 0.081384755671024323 0.13282150030136108 0.081268183887004852 -0.2208380401134491 -0.13321396708488464 0.16223767399787903 -0.17095862329006195 0.12679581344127655 -0.06745639443397522 -0.022691439837217331 -0.062677450478076935 0.14017800986766815 -0.064631655812263489 -0.058094717562198639 0.075705543160438538 -0.21910829842090607 0.1618158221244812 -0.071739725768566132 0.050231378525495529 -0.11593550443649292 -0.15101809799671173 -0.073686212301254272 0.15482999384403229 0.0092943692579865456 0.2054150253534317 0.13425819575786591 -0.12444762140512466 0.052980050444602966 -0.12024297565221786 0.021705446764826775 0.045357737690210342 0.0094384932890534401 -0.065187625586986542 -0.13276886940002441 -0.094731293618679047 -0.20892579853534698 -0.037085350602865219 0.15380869805812836 -0.091956011950969696 0.016287731006741524 0.15734660625457764 -0.13699224591255188 -0.14706879854202271 0.012187613174319267 -0.11730869859457016 0.054443657398223877 0.045005500316619873 -0.11192945390939713 0.18216915428638458 -0.14412201941013336 0.18998442590236664 0.050976872444152832 0.0507991723716259 0.12922938168048859 0.1209137812256813 0.15407247841358185 -0.024451993405818939 -0.03920326754450798 -0.10012117773294449 0.22943590581417084 -0.024397598579525948 -0.23837064206600189 0.0082470718771219254 0.069813400506973267 -0.13606074452400208 -0.0035777890589088202 0.091158606112003326 0.15114703774452209 -0.12639887630939484 0.039000596851110458 -0.075985342264175415 0.052375249564647675 -0.11956527084112167 0.050349529832601547 -0.047907784581184387 0.00060555071104317904 0.10742305964231491 0.040645554661750793 -0.13468825817108154 -0.015820195898413658 -0.0019902253989130259 -0.090034246444702148 -0.080178461968898773 -0.048079412430524826 0.051137570291757584 0.066226385533809662 -0.26431560516357422 0.10057936608791351 -0.23218196630477905 -0.052680704742670059 -0.16466331481933594 -0.02936832420527935 -0.13202078640460968 -0.10811883211135864 0.14945207536220551 -0.14446313679218292 -0.065420731902122498 0.16951434314250946 -0.020940359681844711 0.073979146778583527 0.10067066550254822 -0.22595301270484924 0.054439261555671692 -0.19839563965797424 0.095322497189044952 0.031625658273696899 -0.014732319861650467 -0.19152843952178955 0.04907139390707016 0.14040084183216095 0.083493158221244812 -0.15242430567741394 0.079098589718341827 -0.058439310640096664 0.064580529928207397 0.12704074382781982 -0.047212496399879456 0.012003538198769093 0.23629595339298248 0.06934269517660141 0.068236857652664185 -0.014638254418969154 -0.033630326390266418 -0.0067083491012454033 -0.026393182575702667 0.048122741281986237 0.014262717217206955 0.022243538871407509 -0.049891110509634018 0.011942433193325996 -0.082142338156700134 -0.18918448686599731 -0.0269173514097929 0.12724722921848297 -0.13462696969509125 -0.21117009222507477 -0.0018335523782297969 0.012470666319131851 0.0048639522865414619 0.014489070512354374 -0.2198769599199295 0.1710132509469986 -0.0074783526360988617 0.012559385970234871 0.1013355553150177 -0.15997280180454254 0.14933981001377106 -0.028515834361314774 0.16966013610363007 0.060145214200019836 0.14198613166809082 0.072211943566799164 -0.071519225835800171 0.20990782976150513 -0.098650254309177399 0.23229320347309113 -0.053417053073644638 -0.15542097389698029 -0.15098826587200165 0.088852860033512115 -0.13182452321052551 -0.18278513848781586 0.15198753774166107 0.079995281994342804 -0.18183419108390808 0.19097760319709778 -0.018267113715410233 0.061630573123693466 0.14422065019607544 -0.087095096707344055 0.042664553970098495 -0.17871816456317902 -0.029259951785206795 -0.023765683174133301 -0.087752439081668854 -0.18911938369274139 0.2195277065038681 0.18496865034103394 -0.14244547486305237 0.14612492918968201 -0.065992675721645355 -0.10857008397579193 0.23552216589450836 -0.018655234947800636 0.050996959209442139 0.020258581265807152 -0.12560097873210907 0.090338312089443207 0.0836905837059021 0.05068935826420784 -0.18395788967609406 -0.092522703111171722 -0.014504602178931236 -0.12417328357696533 -0.12868125736713409 -0.14591605961322784 -0.068934813141822815 0.097246028482913971 -0.095752730965614319 -0.13412071764469147 -0.041877526789903641 -0.03469359502196312 -0.1893516331911087 -0.092704653739929199 -0.21581771969795227 -0.07255302369594574 0.1066020280122757 -0.015127139165997505 -0.016359934583306313 -0.0039408463053405285 -0.14218585193157196 -0.043312236666679382 -0.088559068739414215 -0.031349636614322662 -0.016333937644958496 0.15476910769939423 0.15604980289936066 0.084902055561542511 0.024524688720703125 -0.20577625930309296 -0.13377408683300018 0.09892641007900238 -0.12623588740825653 -0.0036548115313053131 0.15262758731842041 -0.12849874794483185 -0.20765741169452667 0.083870023488998413 0.23399905860424042 0.026825306937098503 0.15566809475421906 -0.06431993842124939 0.18883563578128815 0.011448605917394161 -0.17088282108306885 0.14302769303321838 -0.025917965918779373 -0.11337891221046448 0.16252867877483368 -0.063588738441467285 -0.12844762206077576 0.11937981098890305 0.042500626295804977 0.16271786391735077 0.1900402158498764 0.043167650699615479 0.071410529315471649 0.039901472628116608 -0.16509762406349182 0.032515645027160645 0.10417969524860382 -0.068365894258022308 0.041319582611322403 -0.16756317019462585 0.056126933544874191 0.21026353538036346 -0.11864171922206879 0.094782650470733643 -0.063418067991733551 0.006310618482530117 0.19463372230529785 -0.024633787572383881 -0.13656188547611237 0.066060170531272888 0.12575477361679077 -0.1386168897151947 0.21976283192634583 -0.049168314784765244 0.057228937745094299 0.1576104611158371 0.028405696153640747 0.042974796146154404 -0.11912302672863007 -0.14376594126224518 -0.0055406205356121063 0.13965027034282684 -0.0020079538226127625 -0.10058743506669998 0.22376856207847595 0.10328765958547592 0.20702394843101501 0.10626810789108276 -0.12313432991504669 0.10452964156866074 -0.00052628415869548917 0.042189590632915497 -0.087338730692863464 -0.032083991914987564 -0.18651887774467468 -0.083968967199325562 9.9698081612586975e-05 -0.17103756964206696 -0.11548513919115067 -0.072843022644519806 -0.2093958705663681 -0.017832204699516296 -0.12932512164115906 -0.011720580048859119 -0.14165213704109192 0.19384720921516418 -0.16334392130374908 0.17677091062068939 0.10756273567676544 0.1255546361207962 -0.11005771160125732 0.1692323237657547 0.060131657868623734 0.074238426983356476 0.080420732498168945 -0.14413364231586456 -0.031072068959474564 -0.1097726970911026 0.047362916171550751 0.078249983489513397 0.084730900824069977 0.10263454914093018 -0.12740889191627502 -0.068726800382137299 -0.14640989899635315 -0.13766030967235565 0.0012022588634863496 0.13943514227867126 -0.11590135097503662 -0.1770482212305069 0.074285693466663361 -0.011405144818127155 -0.13354049623012543 -0.13817894458770752 0.054821144789457321 0.08588758111000061 -0.21043863892555237 -0.0667143315076828 0.080150716006755829 0.16618706285953522 -0.14622195065021515 0.1420489102602005 0.0057317810133099556 0.024707507342100143 0.031597841531038284 0.036988005042076111 0.094459250569343567 -0.018041258677840233 -0.13458983600139618 -0.031073236837983131 -0.14771237969398499 -0.083031974732875824 0.081009149551391602 0.062998563051223755 0.13465476036071777 0.1594482809305191 0.14967767894268036 -0.085509136319160461 -0.13130912184715271 0.18804909288883209 0.0055428566411137581 -0.10513369739055634 0.14031426608562469 0.053556568920612335 0.14476801455020905 -0.1354253739118576 0.078278899192810059 0.15804362297058105 0.056230779737234116 -0.22956384718418121 0.11982348561286926 0.03405134379863739 0.12343995273113251 -0.16385477781295776 0.016288625076413155 -0.10757414251565933 0.073386713862419128 0.06922546774148941 -0.066537663340568542 -0.05383620411157608 -0.18492145836353302 -0.17805057764053345 -0.11146894842386246 0.022016040980815887 -0.17513918876647949 -0.16801269352436066 0.039980430155992508 -0.17862467467784882 0.11241400986909866 -0.064972959458827972 0.0017927074804902077 0.15172311663627625 0.08018840104341507 0.055184043943881989 0.086499758064746857 -0.26142275333404541 -0.018812840804457664 -0.03322465717792511 0.061031032353639603 -0.079366974532604218 -0.001183296088129282 -0.076512992382049561 0.029990348964929581 0.14265306293964386 0.066961869597434998 0.16011759638786316 -0.12236092239618301 0.11101788282394409 0.024333614856004715 0.24165226519107819 -0.11337519437074661 0.11653491109609604 -0.032049715518951416 0.15661093592643738 -0.22051854431629181 -0.10329434275627136 -0.17079684138298035 -0.0074174092151224613 0.029954906553030014 -0.15487518906593323 0.12575682997703552 -0.071169458329677582 -0.022408280521631241 0.18833714723587036 -0.060173280537128448 -0.072257906198501587 0.02054029144346714 0.077450349926948547 0.061568021774291992 -0.14099402725696564 -0.018876651301980019 -0.077202223241329193 0.069926805794239044 0.10168047249317169 0.19445860385894775 0.12432841956615448 -0.026432275772094727 -0.11239340156316757 -0.058717668056488037 0.030382677912712097 0.13543854653835297 0.007873869501054287 -0.11155866831541061 -0.13095228374004364 0.16044653952121735 -0.14212112128734589 0.052588444203138351 0.12839564681053162 -0.083991579711437225 -0.0041770343668758869 -0.14256741106510162 0.083024941384792328 -0.089464873075485229 0.0027035064995288849 -0.17442299425601959 -0.091024734079837799 0.11184576898813248 -0.22296588122844696 -0.22605374455451965 0.14183056354522705 -0.11305838823318481 -0.2494843453168869 0.032720927149057388 -0.0068009961396455765 0.038269396871328354 0.25166580080986023 0.087311685085296631 0.033135965466499329 -0.15113732218742371 -0.16622786223888397 0.01626255176961422 0.23843991756439209 -0.18240675330162048 0.22312113642692566 -0.072344318032264709 -0.14908687770366669 0.083973608911037445 -0.15973015129566193 0.17853733897209167 0.03316955640912056 -0.094074457883834839 -0.11742459237575531 -0.196044921875 0.1794351190328598 0.13393160700798035 -0.21111057698726654 -0.022378845140337944 0.0054426132701337337 -0.13912849128246307 -0.094226725399494171 0.12846717238426208 0.15237061679363251 -0.10672104358673096 -0.0329606793820858 0.0042356746271252632 -0.10363428294658661 0.15147364139556885 -0.14934182167053223 -0.20798124372959137 -0.11665815114974976 0.14551593363285065 0.094222128391265869 0.029204029589891434 0.14395743608474731 0.13362197577953339 -0.071842357516288757 0.15202869474887848 -0.12002050131559372 0.04708949476480484 -0.052976716309785843 -0.15244342386722565 -0.0015856614336371422 0.093325309455394745 0.093641795217990875 -0.037955265492200851 0.12737195193767548 0.20909158885478973 0.22873426973819733 -0.043927505612373352 0.17729493975639343 0.0087955938652157784 0.096805334091186523 0.06855299323797226 -0.06006263941526413 -0.11053667217493057 -0.026755267754197121 0.22685341536998749 0.098253019154071808 0.075950384140014648 0.030388740822672844 0.071845747530460358 -0.040975987911224365 0.067881956696510315 -0.10464923828840256 0.008414125069975853 -0.013371586799621582 0.057695638388395309 0.1964336484670639 -0.099934525787830353 -0.016491621732711792 -0.029086368158459663 -0.076764576137065887 -0.087684176862239838 0.085321702063083649 -0.11572276055812836 -0.049229905009269714 0.065903708338737488 -0.11276551336050034 0.058196183294057846 0.23369264602661133 0.17667478322982788 -0.0088361017405986786 0.1048072874546051 -0.019125815480947495 -0.017577212303876877 -0.16919262707233429 -0.13310439884662628 -0.028695723041892052 -0.23233990371227264 -0.042438063770532608 0.0848841592669487 -0.13724486529827118 0.14697018265724182 -0.013670153915882111 -0.047661155462265015 -0.18486805260181427 -0.025459505617618561 0.047659631818532944 0.08679826557636261 0.013522366993129253 -0.0066348672844469547 -0.22980539500713348 0.20176546275615692 0.10208572447299957 -0.060598179697990417 -0.057339616119861603 0.16266258060932159 -0.053045552223920822 -0.088532581925392151 0.039253268390893936 -0.16254113614559174 0.13712489604949951 -0.18378642201423645 -0.17352980375289917 0.10594461858272552 -0.011815712787210941 0.061880353838205338 0.10418468713760376 -0.086817748844623566 0.048627506941556931 0.059180665761232376 0.20801173150539398 -0.02352067269384861 0.087053097784519196 -0.027118904516100883 0.082440808415412903 -0.16932754218578339 -0.010203717276453972 -0.030638521537184715 0.22665269672870636 0.090089261531829834 0.054957736283540726 0.16074225306510925 -0.0045063989236950874 -0.13515102863311768 -0.18402016162872314 -0.0092600826174020767 0.025107795372605324 0.21212261915206909 0.075695797801017761 0.1723114401102066 0.20641776919364929 0.18833494186401367 0.027187002822756767 0.10855961591005325 0.0249069444835186 -0.028538418933749199 -0.069097854197025299 0.093374460935592651 -0.011980175971984863 -0.1198270246386528 0.033254712820053101 -0.22294826805591583 -0.039531953632831573 0.061240281909704208 0.076638907194137573 0.11545222997665405 0.026042357087135315 0.16408799588680267 0.25907859206199646 0.051446385681629181 0.088571622967720032 -0.095098055899143219 -0.13680002093315125 -0.14212310314178467 0.0048545566387474537 0.11271992325782776 0.17098540067672729 0.093533627688884735 0.021836366504430771 0.031668864190578461 0.10061375051736832 -0.039329681545495987 -0.088992670178413391 0.15265843272209167 -0.03189537301659584 0.15435905754566193 -0.054292775690555573 -0.16291946172714233 0.21283888816833496 0.17160634696483612 -0.16187804937362671 -0.12636177241802216 0.19325079023838043 0.052696473896503448 0.077461116015911102 -0.10480355471372604 0.017791870981454849 -0.032554838806390762 0.021833635866641998 -0.076124250888824463 -0.054834343492984772 -0.062204625457525253 0.13264165818691254 -0.17696428298950195 0.0085639571771025658 0.040295500308275223 0.046171210706233978 0.053912002593278885 0.069081157445907593 0.090290658175945282 0.19919838011264801 0.12475097179412842 -0.18053534626960754 0.10990253090858459 -0.01603289321064949 -0.068179741501808167 0.046982698142528534 -0.0078053707256913185 -0.053861834108829498 0.042029660195112228 0.088579989969730377 -0.04103996604681015 0.055021654814481735 0.11978724598884583 -0.14043095707893372 -0.22591036558151245 0.042633984237909317 0.0031994173768907785 0.023119274526834488 -0.01091203186661005 0.14564536511898041 0.13042832911014557 -0.19961991906166077 -0.046807907521724701 0.15995766222476959 0.039316222071647644 -0.10668271780014038 -0.1221190020442009 0.052382823079824448 -0.12894216179847717 0.25097677111625671 0.12057798355817795 0.10032594203948975 -0.14997546374797821 -0.086965106427669525 0.017961941659450531 0.19672434031963348 -0.054129321128129959 0.021065380424261093 0.11837778985500336 0.1095777302980423 -0.05855950340628624 -0.030812602490186691 -0.12855066359043121 0.077752433717250824 0.12730315327644348 0.10458986461162567 0.16853269934654236 0.098189182579517365 -0.16392400860786438 0.14301523566246033 -0.12751616537570953 -0.013085640966892242 0.086499407887458801 -0.16809859871864319 0.084762528538703918 0.13488900661468506 -0.033924438059329987 0.13096320629119873 -0.078587338328361511 -0.20403362810611725 -0.088515177369117737 -0.19185052812099457 -0.091895774006843567 0.12826964259147644 -0.10655006766319275 -0.092007018625736237 0.10409329831600189 0.10095483064651489 -0.18640394508838654 0.13963738083839417 -0.025815045461058617 -0.16862007975578308 -0.086533054709434509 -0.13303960859775543 -0.081064268946647644 0.14124172925949097 -0.18050263822078705 -0.068274334073066711 0.04407588392496109 -0.036228928714990616 -0.085437171161174774 0.10035667568445206 0.073379315435886383 0.12990166246891022 0.017516829073429108 -0.22069244086742401 0.135663703083992 0.14441554248332977 0.19107905030250549 0.14284953474998474 0.045163895934820175 0.136008620262146 0.027898985892534256 -0.036925904452800751 0.16961529850959778 0.10782158374786377 -0.11359314620494843 -0.035515978932380676 0.035938888788223267 -0.093682244420051575 0.043791119009256363 0.18307280540466309 -0.13039666414260864 0.14117014408111572 0.00028077774913981557 0.0093534784391522408 0.047051049768924713 0.20547112822532654 -0.17764250934123993 0.032752741128206253 0.1391310840845108 0.19994029402732849 0.070833362638950348 -0.11249484121799469 0.19430139660835266 0.1168837696313858 0.10483352839946747 0.14982010424137115 0.1548788994550705 0.031480628997087479 -0.13865527510643005 -0.054975267499685287 -0.2197076678276062 -0.12002040445804596 -0.072657696902751923 -0.17663203179836273 -0.059538844972848892 0.11427093297243118 -0.036061473190784454 0.037340298295021057 -0.061436861753463745 0.037335563451051712 -0.1480107456445694 -0.21515841782093048 -0.1809312105178833 -0.15756328403949738 -0.02705690823495388 0.093681074678897858 0.061438944190740585 0.19422048330307007 -0.1927071213722229 -0.11083842068910599 -0.023350248113274574 -0.12724398076534271 -0.081918925046920776 0.055153794586658478 -0.24229557812213898 0.17258025705814362 0.078319057822227478 0.0079361451789736748 0.0090902326628565788 -0.11822691559791565 -0.10779372602701187 -0.085618361830711365 0.14054772257804871 0.011249305680394173 0.24150186777114868 0.039378341287374496 0.13388609886169434 0.038967505097389221 -0.12203855812549591 0.045983728021383286 0.19394728541374207 -0.03710068017244339 -0.093857310712337494 0.096447959542274475 0.086287505924701691 0.10110516846179962 -0.1034625843167305 -0.0235422533005476 -0.022821199148893356 0.040279194712638855 0.17856301367282867 -0.066329687833786011 0.23354503512382507 -0.037548810243606567 -0.23076233267784119 0.055154774338006973 -0.15004174411296844 -0.08472258597612381 0.016336552798748016 0.052335403859615326 0.024430457502603531 0.13988921046257019 -0.075805366039276123 0.037364326417446136 0.13031433522701263 -0.037098720669746399 0.27688747644424438 -0.018009889870882034 0.03308236226439476 0.12160202860832214 -0.10356168448925018 -0.053921002894639969 -0.15386727452278137 -0.046941652894020081 -0.12661880254745483 -0.09619496762752533 -0.17045332491397858 -0.048677414655685425 -0.18099658191204071 -0.18242757022380829 0.089134328067302704 0.024367582052946091 -0.17819228768348694 -0.15875835716724396 0.000972849375102669 0.060919437557458878 -0.14714841544628143 0.016037542372941971 -0.039996281266212463 0.064852580428123474 -0.11320912092924118 0.094474509358406067 0.042449653148651123 0.054142389446496964 0.00014819391071796417 -0.088340289890766144 0.088206559419631958 0.067286267876625061 0.2136944979429245 0.017328027635812759 0.12516632676124573 0.19104605913162231 -0.19448675215244293 -0.006277124397456646 0.092390269041061401 0.017958596348762512 -0.10327716171741486 -0.12795622646808624 0.067996084690093994 0.099674805998802185 -0.057912833988666534 -0.057915728539228439 -0.001154158147983253 -0.027538834139704704 -0.18074259161949158 -0.23184999823570251 -0.15331222116947174 0.11985816806554794 -0.065605849027633667 0.010772344656288624 -0.21926380693912506 -0.028822004795074463 -0.1189582496881485 -0.15021491050720215 -0.083051025867462158 -0.069327518343925476 0.15239989757537842 -0.13040529191493988 0.10065372288227081 -0.073725573718547821 0.069657966494560242 -0.024904489517211914 0.10690400749444962 -0.061885111033916473 0.11263491958379745 -0.081502139568328857 -0.023650910705327988 0.05109395831823349 -0.13803298771381378 -0.054991282522678375 0.076825551688671112 0.065631948411464691 -0.16641293466091156 0.049624115228652954 0.030653476715087891 0.1994875967502594 -0.11859064549207687 -0.11768355220556259 0.13388426601886749 0.042517479509115219 0.051289461553096771 -0.042198047041893005 -0.077395737171173096 0.17430846393108368 0.023901820182800293 0.12591564655303955 0.12126651406288147 0.205837681889534 0.15653175115585327 0.0040240786038339138 0.084841489791870117 -0.057429060339927673 -0.20875552296638489 0.14072410762310028 -0.025302624329924583 -0.11782454699277878 -0.13528271019458771 -0.072605468332767487 -0.10955560952425003 0.171286940574646 0.083888627588748932 0.23141257464885712 -0.11448106914758682 0.0066916090436279774 0.19402162730693817 -0.038538645952939987 0.16596382856369019 -0.25108706951141357 0.085414201021194458 -0.0859404057264328 -0.014203441329300404 0.050895072519779205 0.19697505235671997 0.092184387147426605 -0.0015138812595978379 0.072675958275794983 -0.1458519846200943 -0.012582619674503803 -0.045075118541717529 0.12089229375123978 -0.0087223602458834648 0.0098042925819754601 0.08560267835855484 -0.044859610497951508 -0.20144458115100861 -0.21482808887958527 -0.021403955295681953 -0.037480730563402176 0.10370998829603195 0.0030870516784489155 0.15915170311927795 -0.069738522171974182 0.15407237410545349 0.092598140239715576 -0.016731763258576393 0.0064897751435637474 0.12343757599592209 0.13861654698848724 -0.024440310895442963 -0.16324970126152039 -0.09778459370136261 -0.04755903035402298 -0.13277825713157654 -0.13842035830020905 0.14404241740703583 -0.24008426070213318 0.16008111834526062 0.14774264395236969 0.11780945956707001 0.15976265072822571 0.073981128633022308 0.0011061805998906493 0.070574559271335602 -0.10980250686407089 0.18329060077667236 -0.076815731823444366 0.22148239612579346 -0.055367752909660339 0.018966458737850189 0.10348279774188995 0.053124558180570602 0.11251126974821091 -0.072841018438339233 -0.10044720023870468 0.091750249266624451 -0.072158209979534149 0.10495513677597046 -0.0035295393317937851 0.034462995827198029 -0.10041176527738571 0.058798156678676605 -0.14551714062690735 0.022927401587367058 -0.10215263068675995 0.090626969933509827 0.099450826644897461 0.056641235947608948 -0.014737081713974476 -0.12833215296268463 0.030906662344932556 -0.0090012066066265106 0.18027158081531525 0.041216418147087097 0.076020866632461548 0.063944153487682343 0.19753140211105347 -0.051808588206768036 0.13012032210826874 -0.19274342060089111 -0.017852235585451126 -0.045093581080436707 0.075699217617511749 0.0915488600730896 0.1589406430721283 0.12657622992992401 0.066486336290836334 -0.017759749665856361 -0.0050128065049648285 0.13000039756298065 0.21799685060977936 -0.061923082917928696 -0.060294363647699356 0.032523095607757568 -0.1301196962594986 0.073114886879920959 0.11983640491962433 -0.12146525830030441 -0.061136126518249512 0.14992925524711609 -0.084590978920459747 0.14928732812404633 0.073353037238121033 -0.035376042127609253 -0.048294138163328171 -0.056758183985948563 0.072518251836299896 -0.056775555014610291 0.087440647184848785 0.061262305825948715 -0.19795562326908112 -0.029813682660460472 -0.11912407726049423 0.1985628604888916 -0.06070999801158905 0.1044560894370079 -0.12551991641521454 0.062814235687255859 0.1814202219247818 -0.079140014946460724 -0.1134670078754425 -0.050021428614854813 -0.21067021787166595 -0.072093874216079712 -0.13700310885906219 -0.18842010200023651 0.18180195987224579 -0.15197262167930603 -0.052585724741220474 -0.062460370361804962 0.109235480427742 -0.12877586483955383 0.11522210389375687 -0.021572958678007126 -0.065508410334587097 0.14846824109554291 0.01206634659320116 0.14854896068572998 -0.21987034380435944 -0.2089703381061554 -0.0027112467214465141 -0.022492289543151855 -0.2284281849861145 -0.12765206396579742 0.0095976917073130608 -0.12903539836406708 -0.17346784472465515 -0.21393854916095734 0.18122680485248566 0.030913868919014931 0.22412584722042084 0.24207110702991486 -0.15750476717948914 0.10578843206167221 0.18852779269218445 -0.063459970057010651 -0.096961945295333862 0.14207088947296143 -0.15934978425502777 -0.2259395569562912 0.02597448043525219 0.2173679918050766 -0.094139233231544495 0.099250428378582001 -0.050398968160152435 -0.050632201135158539 -0.066967956721782684 0.033708885312080383 -0.10844242572784424 -0.064173333346843719 0.08546631783246994 -0.046217475086450577 -0.13121037185192108 -0.12860707938671112 -0.23172812163829803 -0.05833156406879425 0.10000219196081161 -0.067769408226013184 0.12227367609739304 0.11282709985971451 -0.11396369338035583 0.058680258691310883 -0.052227985113859177 -0.036871328949928284 -0.0079319700598716736 0.033928137272596359 0.02034933865070343 -0.19256238639354706 -0.081639334559440613 -0.19455987215042114 0.1562245637178421 -0.12088895589113235 -0.23150224983692169 0.17009018361568451 -0.032002188265323639 -0.10127290338277817 0.067719884216785431 -0.10903757810592651 -0.13100498914718628 -0.01834387332201004 -0.031161636114120483 -0.11338433623313904 0.062048647552728653 -0.10376784205436707 0.1739317923784256 0.0044305357150733471 0.024934723973274231 -0.018413648009300232 0.17000669240951538 -0.19846121966838837 -0.2317282110452652 -0.08489709347486496 -0.21496835350990295 -0.0011315393494442105 0.10452190041542053 0.016404660418629646 0.039005927741527557 -0.1444990485906601 0.066734015941619873 0.033090732991695404 0.16220936179161072 -0.11876510828733444 -0.2273867279291153 -0.12381695210933685 0.0036809765733778477 0.22947153449058533 -0.12034744024276733 -0.013992147520184517 0.041823502629995346 0.16784687340259552 -0.053862668573856354 0.047620669007301331 -0.019159791991114616 -0.13407781720161438 0.016880704089999199 0.12434486299753189 -0.044298619031906128 -0.051213726401329041 -0.065799348056316376 -0.11638331413269043 -0.17418980598449707 -0.13583502173423767 0.060989599674940109 0.22900676727294922 -0.18887384235858917 -0.045115452259778976 -0.11296544969081879 -0.054994042962789536 0.13010099530220032 -0.1072813868522644 -0.011523813009262085 -0.0008954640943557024 0.034599285572767258 -0.15876011550426483 -0.038600251078605652 -0.065752476453781128 0.13634692132472992 -0.1629650890827179 -0.10578769445419312 -0.13315244019031525 -0.098155826330184937 0.20558685064315796 -0.12200105935335159 -0.15645454823970795 -0.20155498385429382 0.11460401117801666 0.11362112313508987 0.10451897978782654 -0.17602631449699402 0.0730014368891716 -0.060093402862548828 0.13872027397155762 0.12386607378721237 0.13176745176315308 0.21574495732784271 -0.097223557531833649 0.066835105419158936 0.084675945341587067 -0.083609439432621002 -0.15982073545455933 -0.10132177174091339 0.039524413645267487 0.040261220186948776 -0.072620108723640442 -0.19971650838851929 -0.20130749046802521 0.18221586942672729 -0.11114280670881271 -0.11036739498376846 0.0064452383667230606 0.087109178304672241 -0.075377047061920166 -0.047788359224796295 -0.17984294891357422 0.17659072577953339 -0.15466746687889099 -0.076405316591262817 -0.064405202865600586 -0.11014223098754883 0.044495858252048492 0.079930074512958527 0.1254732757806778 0.07435934990644455 -0.24868811666965485 0.030004831030964851 -0.030846221372485161 0.057984918355941772 0.19809113442897797 -0.10926337540149689 0.028274258598685265 0.17498350143432617 0.12005437910556793 0.063591152429580688 0.068534322082996368 -0.042118176817893982 0.070458412170410156 -0.14519992470741272 -0.15529844164848328 -0.19762736558914185 0.033684626221656799 0.091653384268283844 -0.207636758685112 -0.078973352909088135 0.16403324902057648 -0.052377860993146896 0.19574613869190216 -0.12836949527263641 0.13870655000209808 -0.042246729135513306 0.0087684430181980133 0.064830280840396881 -0.034895680844783783 0.14710897207260132 -0.019933911040425301 -0.056253455579280853 -0.025669977068901062 -0.15610218048095703 -0.0059037795290350914 0.096453934907913208 -0.051726963371038437 -0.12107464671134949 -0.20701844990253448 -0.11048754304647446 -0.12960715591907501 0.081285998225212097 0.071457207202911377 -0.18128862977027893 -0.094871953129768372 0.07207905501127243 -0.066247135400772095 0.10869701206684113 -0.010661104694008827 -0.25044602155685425 -0.022401824593544006 0.19014020264148712 -0.047703299671411514 -0.0068775606341660023 0.11262320727109909 0.16554521024227142 0.046293169260025024 -0.074366353452205658 -0.070799179375171661 -0.0053817201405763626 -0.05232040211558342 -0.044174071401357651 0.12608136236667633 0.12631365656852722 -0.034111626446247101 0.10470642149448395 -0.086878739297389984 0.014217369258403778 0.12535220384597778 0.068450473248958588 -0.033586464822292328 -0.13213863968849182 0.14230033755302429 0.049421239644289017 0.20908942818641663 0.0087853586301207542 0.14918369054794312 0.18984755873680115 -0.017665814608335495 -0.11825238168239594 0.032299693673849106 0.063415579497814178 -0.17026138305664062 -0.10674803704023361 -0.047229830175638199 -0.03883260115981102 0.069423869252204895 0.017828024923801422 0.082510814070701599 0.017675945535302162 0.17936150729656219 0.023409206420183182 0.13907937705516815 -0.22035425901412964 -0.123520128428936 -0.19280077517032623 -0.26524925231933594 -0.11063733696937561 -0.04226602241396904 -0.16111722588539124 -0.098213881254196167 0.010045137256383896 0.10277582705020905 -0.044696301221847534 -0.048789020627737045 0.027335703372955322 -0.19953222572803497 0.082422465085983276 0.043802119791507721 -0.1598820835351944 -0.15400879085063934 -0.035704225301742554 -0.15588696300983429 -0.16912372410297394 0.11968614161014557 0.072704464197158813 0.097250469028949738 0.086470253765583038 -0.081675805151462555 0.17225433886051178 -0.071870900690555573 -0.051996905356645584 0.14000585675239563 0.16756623983383179 -0.042451187968254089 0.021426461637020111 0.1796148270368576 -0.20091493427753448 -0.20472387969493866 -0.25975349545478821 0.09207896888256073 -0.010879958979785442 0.16728952527046204 0.14073733985424042 0.20574714243412018 0.098447211086750031 0.06829167902469635 0.13703283667564392 0.14967511594295502 0.077025420963764191 -0.1536693274974823 -0.042109414935112 0.12346088886260986 -0.13053199648857117 0.045625664293766022 0.015852730721235275 -0.22091490030288696 -0.20053166151046753 0.0012456278782337904 -0.10791636258363724 0.012089529074728489 -0.11341345310211182 -0.10733462870121002 -0.12632489204406738 0.23474472761154175 0.039992135018110275 0.050403676927089691 -0.19490534067153931 -0.16134694218635559 0.042466845363378525 -0.076982229948043823 -0.18718282878398895 0.0068025453947484493 0.11291462928056717 -0.10182768851518631 -0.22423055768013 -0.18167822062969208 0.095111139118671417 0.059177424758672714 0.080349482595920563 -0.07429831475019455 0.086565576493740082 0.065519213676452637 -0.1458052396774292 -0.12769423425197601 -0.056200172752141953 -0.067520357668399811 0.13032610714435577 0.03860338032245636 0.058469541370868683 -0.20293538272380829 0.12129972130060196 -0.23471014201641083 0.12943781912326813 0.13474898040294647 -0.16548033058643341 -0.11269040405750275 0.01510050892829895 0.066085569560527802 0.1335049569606781 0.085811741650104523 -0.074542269110679626 0.014224164187908173 -0.17295631766319275 0.20755089819431305 0.026823731139302254 0.12993276119232178 -0.048769645392894745 0.021341634914278984 -0.020013961941003799 -0.071437641978263855 -0.01321610901504755 0.0070251775905489922 -0.0095591861754655838 -0.0083009703084826469 -0.11349515616893768 0.029204336926341057 0.12574455142021179 -0.10308302193880081 0.013184860348701477 -0.10503686219453812 0.14362989366054535 -0.071830414235591888 0.02051084116101265 0.057501189410686493 -0.032247468829154968 0.12139876186847687 -0.18084128201007843 0.06295032799243927 0.10457348078489304 0.019297957420349121 -0.070950761437416077 -0.11632469296455383 0.048178501427173615 -0.054967287927865982 -0.012492568232119083 0.09908641129732132 -0.0095527265220880508 -0.15631847083568573 0.10457950085401535 0.037238411605358124 0.039017539471387863 -0.058028869330883026 0.1496930867433548 -0.092250369489192963 0.04338451474905014 -0.12127186357975006 0.068686693906784058 -0.11774887144565582 0.050896935164928436 0.08055056631565094 0.03725501149892807 0.1090918555855751 0.038702953606843948 0.044124003499746323 0.079588286578655243 0.10966519266366959 -0.11446984112262726 -0.088858313858509064 -0.018910365179181099 -0.10084497183561325 -0.038594964891672134 0.073704458773136139 -0.073262058198451996 -0.08085988461971283 -0.075589172542095184 0.19071905314922333 -0.052422031760215759 0.14211109280586243 0.022470470517873764 -0.10034022480249405 0.12453562766313553 0.0094798365607857704 0.074639849364757538 -0.21936291456222534 -0.10815653949975967 0.062282301485538483 -0.031420134007930756 0.0043020709417760372 -0.19104187190532684 -0.014859544113278389 0.23887553811073303 0.01501889992505312 0.064233347773551941 -0.11219758540391922 0.011788568459451199 -0.21516360342502594 -0.095900371670722961 -0.19967389106750488 0.097052916884422302 -0.0011607310734689236 0.03280581533908844 -0.010539384558796883 0.078544743359088898 -0.048093631863594055 -0.095280975103378296 -0.056069608777761459 -0.17027547955513 -0.013477995060384274 -0.03670867532491684 0.022307148203253746 0.038709763437509537 0.1140751913189888 -0.17814520001411438 0.046669155359268188 -0.067143969237804413 -0.030669080093502998 -0.14509497582912445 -0.18371070921421051 0.0063592405058443546 -0.14731346070766449 0.1129366010427475 -0.16363823413848877 0.10907063633203506 -0.24450168013572693 -0.23428152501583099 0.17342084646224976 -0.041424594819545746 -0.016255663707852364 0.11606115102767944 -0.063271746039390564 0.076269671320915222 -0.10326331108808517 0.1021658256649971 0.20448695123195648 -0.19329172372817993 0.12600241601467133 -0.10820616036653519 -0.12014169991016388 0.078694626688957214 -0.060151387006044388 -0.13261166214942932 -0.2070305198431015 -0.21498927474021912 0.00024857162497937679 0.06366962194442749 0.062301069498062134 0.099804624915122986 0.13864235579967499 -0.10200558602809906 -0.11122411489486694 -0.025740191340446472 0.13490737974643707 0.025079142302274704 -0.063551105558872223 -0.093297526240348816 -0.043649476021528244 -0.045504823327064514 0.17724694311618805 0.11378541588783264 0.098445311188697815 0.068009629845619202 0.1015007421374321 0.032181844115257263 0.000183654366992414 0.085939310491085052 -0.047371599823236465 -0.07164415717124939 -0.039058536291122437 0.011299800127744675 -0.078480765223503113 -0.097423464059829712 -0.21376962959766388 -0.0034652783069759607 -0.19594618678092957 0.039850421249866486 0.18617694079875946 0.11755519360303879 0.084845840930938721 0.056695032864809036 0.047032129019498825 0.081876412034034729 -0.16951192915439606 -0.14242243766784668 -0.10545305907726288 -0.088410191237926483 0.19477710127830505 -0.27802720665931702 -0.080468825995922089 -0.050036180764436722 0.073151484131813049 -0.20347212255001068 -0.083839945495128632 0.035601850599050522 0.12278925627470016 -0.0071928463876247406 -0.00046534347347915173 0.032101601362228394 0.11465997248888016 -0.0093449670821428299 0.013408303260803223 -0.014599993824958801 -0.085647262632846832 -0.11705944687128067 0.22895556688308716 -0.077334120869636536 -0.0017477857181802392 -0.17557212710380554 -0.086447931826114655 -0.080691426992416382 0.035987008363008499 0.083212338387966156 -0.11634384095668793 0.10584816336631775 0.046152904629707336 -0.018907226622104645 -0.20320159196853638 0.028272872790694237 0.220714271068573 -0.019399655982851982 0.028948105871677399 0.24136197566986084 -0.066096127033233643 0.14568030834197998 0.062612138688564301 -0.069894678890705109 -0.15653255581855774 -0.0075020454823970795 -0.032928109169006348 -0.063594065606594086 -0.080304920673370361 -0.089383818209171295 -0.012173522263765335 -0.11345784366130829 -0.051298711448907852 0.049424659460783005 -0.06443612277507782 -0.14816188812255859 -0.0073881302960216999 -0.034599799662828445 0.093249335885047913 -0.042282424867153168 -0.16570372879505157 -0.012163553386926651 -0.075983785092830658 -0.17501765489578247 -0.18945468962192535 0.073549322783946991 -0.055604301393032074 0.036688372492790222 -0.13216599822044373 0.22879588603973389 -0.19515906274318695 0.029805727303028107 0.08150126039981842 0.15442118048667908 -0.040223971009254456 0.14256046712398529 -0.12101569026708603 0.16172246634960175 -0.043672770261764526 0.010362271219491959 0.057417437434196472 0.12717205286026001 -0.061095591634511948 0.10212050378322601 -0.062684729695320129 0.15986596047878265 -0.0096418801695108414 -0.042059216648340225 -0.0050171623006463051 -0.16454349458217621 0.073323838412761688 0.21956202387809753 0.041708972305059433 -0.12911179661750793 0.073292955756187439 0.21411368250846863 0.087215252220630646 0.090658023953437805 -0.10803127288818359 -0.17020480334758759 0.15957373380661011 -0.087900415062904358 0.098865345120429993 -0.018368642777204514 0.021811692044138908 -0.025224274024367332 -0.12060946226119995 -0.068200655281543732 -0.0064791059121489525 -0.12291084229946136 0.05535106360912323 0.094795428216457367 -0.15530207753181458 0.13392406702041626 0.08997189998626709 -0.050094768404960632 -0.083892866969108582 0.19500935077667236 -0.18943797051906586 -0.1560257226228714 -0.062989510595798492 -0.02579144760966301 0.010546598583459854 -0.2062983363866806 0.22221267223358154 -0.24469146132469177 0.12530972063541412 0.20319195091724396 0.20842960476875305 0.20175439119338989 0.19226248562335968 0.13047853112220764 -0.13134944438934326 0.027757242321968079 -0.12293890863656998 0.069334752857685089 -0.10051733255386353 0.072549581527709961 0.21119515597820282 -0.090575858950614929 0.17676374316215515 -0.1021910086274147 0.00029295438434928656 0.12944789230823517 0.02761102095246315 0.11878302693367004 -0.1128811314702034 -0.029389996081590652 -0.1634937971830368 -0.010973378084599972 -0.0086203515529632568 0.078536197543144226 0.16325543820858002 0.14587895572185516 -0.1986265629529953 -0.16155554354190826 0.080351218581199646 -0.018582317978143692 0.056524679064750671 0.062247484922409058 -0.037726420909166336 -0.20433023571968079 0.089105807244777679 -0.13971960544586182 -0.0029870804864913225 0.037329595535993576 -0.0097893467172980309 0.074973061680793762 0.12895955145359039 -0.059865932911634445 -0.18822228908538818 0.20653750002384186 -0.20224182307720184 0.048432826995849609 -0.10361120849847794 0.11460458487272263 -0.12957702577114105 0.12200044095516205 -0.04177447035908699 -0.0069727459922432899 0.038447536528110504 0.1456502228975296 -0.15933857858181 0.11133350431919098 -0.18120132386684418 -0.17160311341285706 -0.22166161239147186 -0.070151597261428833 0.09939391165971756 0.15404036641120911 0.20809558033943176 -0.0756087526679039 -0.13357383012771606 -0.09951271116733551 0.012705188244581223 0.17358936369419098 0.13822567462921143 0.098912321031093597 0.12719337642192841 -0.027288801968097687 0.19318406283855438 0.14834724366664886 0.16931323707103729 0.056331828236579895 0.028260746970772743 -0.16763114929199219 -0.048612073063850403
b0 0.14135898649692535 0.23263439536094666 -0.022567301988601685 0.14101007580757141 0.19571720063686371 -0.11896273493766785 0.026411242783069611 -0.050582796335220337 -0.053830243647098541 -0.012374578975141048 0.15841026604175568 -0.068110853433609009 0.05735793337225914 -0.025792669504880905 0.23570531606674194 0.19368782639503479 -0.16855984926223755 0.22031840682029724 0.091414779424667358 -0.057318788021802902 0.13719986379146576 0.09435175359249115 -0.023685116320848465 0.0084440745413303375 0.11556659638881683 0.040048625320196152 -0.14319364726543427 -0.071423038840293884 0.21945817768573761 -0.11569873243570328 0.12743151187896729 0.19448255002498627 -0.038405053317546844 0.014604791067540646 0.19689588248729706 0.15211375057697296 -0.013300716876983643 0.031871218234300613 -0.04928351566195488 -0.056738771498203278 -0.034656234085559845 0.051233373582363129 0.21811679005622864 0.046057946979999542 0.16141906380653381 0.21845416724681854 -0.011499164626002312 0.027541572228074074 0.24428597092628479 -0.06861143559217453 -0.10133316367864609 -0.0054657026194036007 0.019806090742349625 -0.081506833434104919 0.056210912764072418 0.16827237606048584 0.22596560418605804 0.10236456245183945 -0.048378638923168182 0.12799106538295746 0.15934813022613525 -0.055092751979827881 -0.11842861026525497 -0.060674864798784256
w1 0.001675507752224803 0.064493797719478607 -0.037287738174200058 0.16026507318019867 0.132603719830513 0.05074460431933403 -0.10148492455482483 -0.0026046109851449728 0.050026409327983856 0.16134677827358246 -0.15030241012573242 0.019193682819604874 -0.11786074936389923 -0.06342790275812149 0.0067323083057999611 -0.13121424615383148 -0.11997856944799423 -0.010924994945526123 -0.040681414306163788 0.10636629164218903 0.071731686592102051 -0.02859947457909584 0.12371519207954407 0.10148874670267105 -0.11025744676589966 -0.031701117753982544 -0.031157461926341057 -0.083353400230407715 0.062734216451644897 -0.045916654169559479 -0.037564221769571304 0.0086633432656526566 -0.075378052890300751 -0.013056010007858276 0.058844778686761856 0.063009589910507202 0.12539930641651154 0.16797520220279694 -0.10753090679645538 0.17774476110935211 -0.10286868363618851 0.10147908329963684 -0.03304508700966835 0.01896277628839016 -0.017101151868700981 -0.013981955125927925 -0.028854979202151299 0.049548674374818802 0.071447879076004028 0.11595309525728226 0.0084105739369988441 -0.013353978283703327 -0.021680412814021111 0.012389428913593292 0.018391642719507217 0.095773540437221527 0.0090908640995621681 -0.056402314454317093 0.0080645335838198662 0.070131503045558929 -0.040497496724128723 0.079894371330738068 0.044687658548355103 0.10662764310836792 0.077211014926433563 -0.027055051177740097 0.038033928722143173 0.039308451116085052 0.027378741651773453 0.023591259494423866 -0.060392528772354126 0.011873546987771988 -0.031491555273532867 0.0069893128238618374 -0.15120796859264374 -0.13025963306427002 0.078242622315883636 0.02804596908390522 0.069478981196880341 -0.018065361306071281 -0.12592929601669312 -0.047645088285207748 0.20016281306743622 0.13140566647052765 -0.10376796126365662 -0.069959670305252075 0.024740789085626602 -0.0033628037199378014 0.0069589894264936447 -0.048457328230142593 -0.13939742743968964 0.11419817805290222 -0.024307655170559883 0.049250051379203796 0.024834403768181801 0.090940713882446289 -0.15416072309017181 -0.10781780630350113 -0.11495602130889893 0.13976423442363739 0.17219369113445282 0.063641689717769623 0.011358977295458317 0.0097884777933359146 0.012907941825687885 0.0060564922168850899 0.078763030469417572 0.14696282148361206 0.055221527814865112 -0.1725054532289505 0.081717520952224731 -0.010203350335359573 -0.036754656583070755 0.16512735188007355 0.039141092449426651 -0.053530503064393997 0.048735350370407104 0.03915930911898613 0.048133574426174164 0.020224733278155327 -0.0017162724398076534 0.038768023252487183 0.048954412341117859 -0.084688305854797363 0.085278823971748352 0.15849427878856659 -0.10633894056081772 0.059948008507490158 0.066827140748500824 0.1429533064365387 -0.16370058059692383 0.059671275317668915 0.0076094935648143291 0.06073274090886116 0.015655921772122383 -0.039826873689889908 0.070106178522109985 -0.11090641468763351 0.0030970568768680096 0.10759977996349335 0.087915226817131042 0.047405976802110672 -0.030924947932362556 -0.0050158840604126453 -0.006512720137834549 -0.053390335291624069 -0.09526592493057251 -0.015577607788145542 0.19603545963764191 0.14814293384552002 0.19036749005317688 0.039722077548503876 0.13546709716320038 -0.035069756209850311 -0.0095387911424040794 -0.0082821324467658997 0.18886882066726685 0.15422920882701874 0.16362524032592773 0.12972566485404968 0.055700212717056274 0.057612597942352295 0.045563988387584686 0.031554806977510452 0.071284539997577667 -0.21510796248912811 -0.038106855005025864 -0.16189631819725037 0.079031728208065033 -0.054219186305999756 0.06640239804983139 0.002399911405518651 0.10573706030845642 0.014810045249760151 -0.15347874164581299 0.14587733149528503 0.010428481735289097 -0.084561489522457123 -0.058263529092073441 0.15206126868724823 0.075115330517292023 -0.0063951993361115456 -0.011631029658019543 -0.020036190748214722 -0.18686667084693909 0.0030443822033703327 0.12476774305105209 0.19687168300151825 0.10752677917480469 -0.057838469743728638 0.022968616336584091 -0.054647810757160187 0.059586085379123688 0.036579322069883347 -0.046058829873800278 -0.040883079171180725 -0.036584515124559402 0.076893068850040436 0.026250813156366348 -0.041543491184711456 0.1828627735376358 -0.14894533157348633 0.17451365292072296 0.18488971889019012 0.17851454019546509 0.0024192361161112785 0.0399799644947052 0.016541101038455963 -0.06266794353723526 0.06569989025592804 -0.11978038400411606 0.10924022644758224 0.17578792572021484 0.038886170834302902 0.15925419330596924 0.10843923687934875 0.10933543741703033 -0.066482841968536377 0.044236108660697937 -0.0024520186707377434 0.0018756774952635169 0.069046258926391602 0.0044050170108675957 0.038908552378416061 -0.013835472986102104 0.11826976388692856 0.1841532438993454 0.079136155545711517 0.010565657168626785 -0.20812447369098663 -0.05207543820142746 -0.21308174729347229 0.095885001122951508 -0.0087227839976549149 0.0054518724791705608 -0.086565837264060974 -0.039898868650197983 0.14323596656322479 -0.18576931953430176 0.1487840861082077 0.081922449171543121 0.026110358536243439 -0.16133075952529907 0.1305532306432724 -0.027589293196797371 0.13356667757034302 0.11137097328901291 0.047598045319318771 0.040012359619140625 -0.014284931123256683 0.01732601597905159 0.18528600037097931 0.035068538039922714 -0.054042067378759384 0.093501046299934387 0.056352563202381134 -0.0060505676083266735 0.030273078009486198 0.089329436421394348 0.12721827626228333 0.16734527051448822 0.12879908084869385 -0.1119837611913681 0.035758350044488907 -0.10369612276554108 0.030117280781269073 -0.16803708672523499 -0.054576519876718521 -0.018464615568518639 -0.020992157980799675 0.043262634426355362 0.027721427381038666 -0.019979657605290413 0.14800950884819031 0.087813004851341248 -0.032440286129713058 -0.0022141849622130394 -0.11079944670200348 0.031783353537321091 0.036502879112958908 0.0051373811438679695 0.069526374340057373 -0.024063538759946823 0.088840015232563019 0.069022387266159058 -0.035389386117458344 0.096704423427581787 -0.07918095588684082 -0.19346423447132111 -0.12066201120615005 -0.13250701129436493 -0.096312403678894043 0.07976435124874115 0.058901011943817139 -0.15533533692359924 0.062682934105396271 0.09727700799703598 0.03099885955452919 0.11075592041015625 0.18256215751171112 0.072116568684577942 -0.0866212397813797 -0.019007837399840355 -0.03759731724858284 0.11323444545269012 0.051591474562883377 0.12485972046852112 -0.037622388452291489 0.044913344085216522 -0.024169132113456726 0.0023211424704641104 0.11461096256971359 0.19210761785507202 -0.026423526927828789 -0.160544753074646 0.10586105287075043 0.017323311418294907 0.09798857569694519 -0.12484783679246902 0.11010222136974335 0.10511983931064606 0.10934743285179138 0.17346981167793274 0.016694925725460052 0.18422769010066986 0.011935229413211346 0.026122719049453735 -0.075027935206890106 -0.030363097786903381 0.03517584502696991 -0.12307346612215042 -0.1440502405166626 0.092841431498527527 0.086005300283432007 0.050175301730632782 0.02323504164814949 -0.039444077759981155 0.022574087604880333 -0.021477965638041496 0.15878234803676605 -0.1475369781255722 0.059475075453519821 0.13680648803710938 0.10662756860256195 -0.16940829157829285 0.039835713803768158 -0.042883086949586868 0.10018649697303772 0.065267994999885559 -0.039106264710426331 -0.026595361530780792 0.14252746105194092 -0.18487255275249481 -0.15846326947212219 -0.042829941958189011 -0.13010580837726593 0.17341753840446472 0.025638528168201447 -0.10427363961935043 -0.035163816064596176 0.050247024744749069 0.054999895393848419 -0.043743718415498734 0.062828987836837769 0.091685809195041656 -0.079429447650909424 0.14416976273059845 0.053420111536979675 0.075744077563285828 0.055338680744171143 0.14417156577110291 0.091919958591461182 0.12115280330181122 0.10545007139444351 -0.0038076196797192097 -0.081397294998168945 0.20398403704166412 0.018388999626040459 -0.1049082949757576 -0.14234454929828644 0.059790894389152527 -0.036673329770565033 -0.062467236071825027 0.082006417214870453 0.011876005679368973 0.15429559350013733 -0.041834563016891479 -0.077206335961818695 -0.053171046078205109 -0.014168836176395416 0.12651799619197845 0.10313195735216141 -0.023834079504013062 -0.15317296981811523 0.16337989270687103 0.13390187919139862 0.093488402664661407 -0.0090533625334501266 0.11013161391019821 -0.014126600697636604 0.036848198622465134 -0.02225736528635025 -0.054945040494203568 -0.097725622355937958 0.13146176934242249 0.027798471972346306 -0.038240250200033188 -0.032526437193155289 -0.045557208359241486 0.047307420521974564 -0.078165613114833832 -0.053396657109260559 -0.024397527799010277 0.15046033263206482 0.11327843368053436 0.077398709952831268 -0.011026079766452312 -0.034045368432998657 0.045982722193002701 0.1706354171037674 0.020423024892807007 -0.16654863953590393 -0.019447699189186096 -0.16109147667884827 0.1171698272228241 -0.048854831606149673 0.066643252968788147 -0.12239782512187958 -0.095076955854892731 0.11331275105476379 -0.18088503181934357 0.037893336266279221 -0.091259874403476715 0.016248270869255066 -0.19413357973098755 0.087429344654083252 -0.092412896454334259 -0.069133222103118896 0.13738751411437988 0.17648927867412567 -0.091292060911655426 -0.1028791218996048 -0.035248644649982452 0.13856504857540131 0.026352787390351295 0.041698485612869263 0.14335666596889496 -0.052539762109518051 0.037837669253349304 0.15649732947349548 0.014294526539742947 0.18709981441497803 0.10140198469161987 -0.028102762997150421 -0.0071814158000051975 0.047486834228038788 0.0067484830506145954 0.066919833421707153 -0.023242618888616562 -0.10772665590047836 -0.055960953235626221 -0.014259811490774155 0.089209683239459991 -0.16706441342830658 0.076999440789222717 -0.012088438495993614 0.1814141571521759 -0.021735526621341705 -0.012314030900597572 -0.14574161171913147 0.097236424684524536 0.21322734653949738 -0.090017713606357574 -0.011800569482147694 -0.16559679806232452 -0.011564006097614765 -0.10618198662996292 0.062300175428390503 0.11242003738880157 -0.072463296353816986 -0.13714180886745453 -0.0089093148708343506 -0.0090774558484554291 0.0096608689054846764 0.0024186915252357721 0.067408591508865356 -0.19967293739318848 0.12932765483856201 0.080050721764564514 0.035621970891952515 0.024198997765779495 0.056261435151100159 0.10815853625535965 -0.16908228397369385 0.022739501670002937 0.018553566187620163 0.11524403840303421 0.1710711270570755 0.10931197553873062 -0.035682916641235352 0.14637289941310883 -0.099032074213027954 -0.17002764344215393 0.12087652087211609 0.16835340857505798 0.10380107909440994 -0.10690228641033173 0.086742497980594635 0.12250170111656189 0.10646337270736694 -0.10445342212915421 -0.0093521643429994583 -0.066771455109119415 -0.00038372140261344612 0.044852297753095627 0.0099427094683051109 -0.031901132315397263 -0.039875835180282593 0.15762478113174438 0.033516235649585724 0.06289362907409668 -0.055926866829395294 0.023285206407308578 0.14290414750576019 0.19609539210796356 0.034650262445211411 0.028055058792233467 0.19345031678676605 0.17353937029838562 -0.034441199153661728 -0.021967526525259018 -0.14097517728805542 0.15063212811946869 0.12881511449813843 -0.0037984026130288839 -0.10102026909589767 0.077661946415901184 -0.15221188962459564 -0.084610424935817719 -0.006253926083445549 0.034233279526233673 0.14121432602405548 -0.012496480718255043 0.10526083409786224 -0.018770221620798111 0.010989553295075893 0.14974468946456909 0.17455868422985077 0.026248103007674217 -0.012934572994709015 0.016820482909679413 0.049473684281110764 0.00029776018345728517 -0.15789636969566345 0.18766084313392639 -0.043957963585853577 -0.057806666940450668 0.15127396583557129 -0.12984038889408112 0.07907857745885849 -0.16577084362506866 -0.023823285475373268 -0.0021185167133808136 0.17469167709350586 -0.10523035377264023 0.095471993088722229 0.1413043886423111 -0.014384186826646328 0.0056302649900317192 0.0031308529432862997 0.056579533964395523 0.047750867903232574 -0.12985645234584808 0.0075684553012251854 0.10220381617546082 -0.16127349436283112 -0.091693185269832611 0.041824169456958771 0.089449077844619751 0.059392835944890976 0.13788355886936188 0.049917019903659821 -0.010608678683638573 -0.012390576303005219 -0.129145547747612 0.018224498257040977 -0.0033198071178048849 -0.12249713391065598 -0.064023122191429138 -0.017776396125555038 0.14504742622375488 -0.044934306293725967 -0.13072498142719269 0.093828164041042328 0.148053839802742 0.10158956795930862 -0.1350245475769043 -0.078274652361869812 0.16564756631851196 0.0690326988697052 -0.063188217580318451 -0.011813243851065636 -0.14189700782299042 -0.030939988791942596 -0.046473093330860138 0.098277442157268524 0.15081042051315308 0.088477246463298798 -0.037086933851242065 -0.057124998420476913 -0.12827983498573303 -0.10104835033416748 0.083022825419902802 0.086310096085071564 -0.15414907038211823 -0.00093129114247858524 0.025505481287837029 0.11560247838497162 0.014222355559468269 0.19726076722145081 -0.029888339340686798 0.012285883538424969 0.19975687563419342 -0.11552723497152328 -0.017217891290783882 -0.066417530179023743 0.0043067461811006069 0.085440889000892639 -0.01952800527215004 -0.095896981656551361 -0.1409609317779541 0.078442379832267761 0.1174827441573143 0.17228893935680389 0.010923264548182487 0.067995831370353699 0.15560774505138397 0.16334417462348938 -0.12024252861738205 0.17435409128665924 0.043237797915935516 -0.037631649523973465 0.1034156009554863 0.037058953195810318 0.10081833600997925 0.02168700098991394 -0.02174786850810051 0.12077884376049042 0.060975715517997742 -0.026717938482761383 0.13230074942111969 0.042129546403884888 -0.044022932648658752 -0.052156403660774231 -0.10858087241649628 0.15492460131645203 0.15631291270256042 -0.10088026523590088 -0.07532491534948349 0.073829934000968933 0.051398828625679016 0.080060951411724091 0.053790856152772903 -0.10198510438203812 0.1602538526058197 -0.14071960747241974 0.079971402883529663 -0.12907370924949646 0.12910962104797363 -0.013873367570340633 0.07889971137046814 0.043546572327613831 0.12936487793922424 0.18693673610687256 0.1255306750535965 0.023548537865281105 -0.034479103982448578 -0.0045417263172566891 0.096444800496101379 0.037618633359670639 0.13848920166492462 0.053339656442403793 0.19314903020858765 -0.079946927726268768 -0.084006980061531067 0.11782214790582657 -0.059376858174800873 0.029980391263961792 0.06504599004983902 0.084544681012630463 -0.13076631724834442 0.12947295606136322 0.0070196683518588543 0.072850055992603302 0.15108920633792877 0.092404231429100037 -0.057077709585428238 -0.074416883289813995 -0.035395082086324692 -0.043563466519117355 0.039412125945091248 0.072284802794456482 0.17038203775882721 -0.14227958023548126 -0.12965328991413116 0.029711872339248657 0.1307537853717804 0.13869252800941467 -0.10377001017332077 -0.01630246639251709 0.051070693880319595 -0.12829415500164032 -0.057538792490959167 0.038331981748342514 -0.099862068891525269 -0.018825232982635498 -0.097526594996452332 -0.078391470015048981 -0.077429048717021942 0.068590410053730011 0.0022122131194919348 0.10004279017448425 -0.12431177496910095 0.059693135321140289 0.10310987383127213 0.088816143572330475 0.026478724554181099 0.0011176024563610554 -0.047118507325649261 -0.17240935564041138 0.011579122394323349 -0.055458247661590576 -0.064878322184085846 -0.014011532999575138 0.021771440282464027 0.0079440269619226456 0.11652712523937225 -0.077058471739292145 0.10459291189908981 -0.080151401460170746 0.065384037792682648 -0.029304124414920807 0.0043835346587002277 -0.066615715622901917 -0.11070044338703156 -0.083532825112342834 -0.059765413403511047 -0.075554214417934418 0.031977735459804535 0.10500315576791763 -0.1133911982178688 -0.037256713956594467 0.10920442640781403 0.056354377418756485 -0.092221654951572418 -0.037182610481977463 0.0072944131679832935 0.088096916675567627 0.085552535951137543 -0.0038316289428621531 -0.090825013816356659 -0.063000842928886414 -0.039895545691251755 0.069870859384536743 0.032283708453178406 -0.11803209036588669 -0.0025840797461569309 -0.080386132001876831 0.041862018406391144 0.0022586805280297995 -0.056807741522789001 -0.057843174785375595 -0.072889991104602814 0.12016136199235916 0.044168643653392792 0.10971610993146896 -0.021114746108651161 -0.15009985864162445 0.08349328488111496 -0.033656857907772064 0.16243843734264374 0.06273593008518219 0.03561042994260788 0.11072473973035812 0.06768798828125 0.11375726014375687 -0.092933133244514465 -0.091903023421764374 0.17637865245342255 0.075932376086711884 -0.10469663143157959 0.10914186388254166 0.0056472094729542732 -0.16949601471424103 -0.077074520289897919 -0.0078137870877981186 0.090124987065792084 -0.0040554888546466827 0.11572502553462982 0.08777192234992981 0.15227913856506348 0.14658395946025848 0.097905807197093964 -0.031967774033546448 -0.033381730318069458 -0.19218505918979645 -0.0099746799096465111 0.0584217868745327 -0.03761618584394455 0.0067707998678088188 0.035795141011476517 0.024738973006606102 0.073892258107662201 0.069865457713603973 0.031721353530883789 0.086251839995384216 -0.073014929890632629 -0.077239997684955597 -0.032046519219875336 0.054547000676393509 -0.051978878676891327 0.11936847865581512 0.15731622278690338 0.06613488495349884 -0.11373613029718399 -0.089559651911258698 0.10377881675958633 0.12569043040275574 -0.0051599503494799137 -0.01516092661768198 0.0051975660026073456 0.092869028449058533 0.093836776912212372 -0.010757445357739925 0.10812219232320786 0.15522928535938263 -0.034080751240253448 -0.055082891136407852 -0.081166066229343414 0.085880555212497711 0.088715210556983948 0.029166905209422112 -0.051322776824235916 -0.10467227548360825 -0.051940791308879852 -0.012617137283086777 0.12694701552391052 -0.042321465909481049 0.038416188210248947 0.11063607037067413 0.13119201362133026 0.18280373513698578 -0.12324315309524536 0.060627508908510208 0.055497605353593826 0.074540294706821442 -0.020933017134666443 0.06326206773519516 -0.017187748104333878 -0.036847896873950958 -0.11091714352369308 0.12393235415220261 0.014882114715874195 0.0018366349395364523 -0.12116490304470062 -0.18613457679748535 -0.066374123096466064 0.034841675311326981 0.027744382619857788 0.16050641238689423 -0.038525070995092392 0.077226541936397552 -0.0080833835527300835 0.11789748072624207 0.13882486522197723 0.18361656367778778 0.084814079105854034 -0.16993957757949829 0.20923170447349548 0.041625048965215683 0.1455996185541153 -0.0086282305419445038 0.15044790506362915 0.14986687898635864 0.19466938078403473 0.0070231426507234573 -0.17213797569274902 -0.008568890392780304 0.10330858081579208 0.19022685289382935 -0.16775104403495789 -0.044764339923858643 0.052589539438486099 0.14182616770267487 -0.19955942034721375 0.11480287462472916 -0.12281929701566696 0.00062239926774054766 0.010624401271343231 -0.099819280207157135 0.028209233656525612 -0.13232223689556122 0.064515724778175354 0.016199219971895218 -0.064034499228000641 0.011048455722630024 0.10521961748600006 -0.065195053815841675 -0.054330535233020782 0.075674682855606079 0.0095816561952233315 0.059705037623643875 -0.10710427910089493 -0.00012477647396735847 -0.078371152281761169 -0.13299305737018585 0.05403074249625206 0.042064826935529709 0.10665542632341385 -0.016733355820178986 0.0031339661218225956 -0.025367606431245804 0.034574542194604874 0.00037341739516705275 -0.023541254922747612 -0.037673000246286392 -0.12969473004341125 0.10217311978340149 -0.077654071152210236 0.0036567151546478271 -0.10541671514511108 -0.04974529892206192 0.13775116205215454 0.097341902554035187 0.0078447116538882256 -0.044974245131015778 -0.12851656973361969 -0.08601091057062149 -0.12130624800920486 0.10026054829359055 -0.10238403826951981 -0.12355160713195801 -0.015726158395409584 0.071473851799964905 0.017056796699762344 -0.10872992873191833 0.18408684432506561 0.025455782189965248 0.055180508643388748 -0.068352013826370239 0.10366827994585037 -0.11706464737653732 -0.048659883439540863 0.10679121315479279 0.021077638491988182 0.076604112982749939 0.14095613360404968 0.071545995771884918 0.073644518852233887 0.0518476702272892 -0.023684209212660789 0.093654155731201172 0.066308848559856415 0.017112009227275848 0.13640980422496796 0.11557549238204956 0.19554722309112549 0.10641950368881226 0.068429954349994659 -0.050523187965154648 0.072881624102592468 0.12929712235927582 0.15169855952262878 0.074703887104988098 -0.04671371728181839 0.15365347266197205 0.017356123775243759 0.11252756416797638 -0.12552253901958466 0.059902794659137726 0.10496128350496292 0.038759171962738037 -0.084813833236694336 0.032153874635696411 0.092372432351112366 -0.16351220011711121 0.0076697776094079018 -0.014333918690681458 0.1345435231924057 0.010122200474143028 -0.021569637581706047 0.15944609045982361 0.12950567901134491 -0.0048187887296080589 0.034697826951742172 -0.01682605966925621 -0.11278090626001358 -0.062435176223516464 -0.056597907096147537 -0.18188707530498505 0.141942098736763 -0.14888462424278259 0.13682284951210022 -0.030231939628720284 0.11373604834079742 -0.024809520691633224 -0.18686780333518982 0.048345897346735001 -0.13769146800041199 0.0091277649626135826 -0.064475089311599731 -0.028605254366993904 0.13777643442153931 0.019268631935119629 -0.021162053570151329 0.10290005803108215 0.071815475821495056 -0.012675122357904911 0.068750746548175812 0.076944179832935333 -0.059602372348308563 -0.1525125652551651 0.017682773992419243 -0.048328489065170288 0.012034721672534943 -0.043096248060464859 0.028035089373588562 -0.098119772970676422 0.10154528915882111 0.1668412983417511 0.034419406205415726 -0.0066051972098648548 -0.014488393440842628 -0.17117670178413391 0.089618988335132599 0.092446513473987579 0.13425859808921814 0.16640040278434753 -0.010985971428453922 0.088091537356376648 0.17517855763435364 0.08446214348077774 0.038224991410970688 0.043349564075469971 -0.034661628305912018 0.15624454617500305 0.051950044929981232 -0.16053579747676849 0.10573060065507889 -0.13144730031490326 0.06338965892791748 -0.12732245028018951 -0.031691905111074448 0.21090219914913177 0.14855708181858063 0.17486251890659332 0.10626602172851562 0.14548236131668091 0.12464510649442673 0.10921944677829742 -0.0037665122654289007 0.013395441696047783 0.12722449004650116 -0.069738693535327911 0.15792369842529297 -0.13277669250965118 0.019048314541578293 -0.10493611544370651 -0.013833140954375267 0.059994839131832123 -0.1179913654923439 0.1554204523563385 0.085189513862133026 -0.093342624604701996 -0.17316660284996033 -0.060971654951572418 0.073204196989536285 0.14102651178836823 0.011593107134103775 0.12665374577045441 -0.02402026578783989 -0.042511221021413803 0.20925191044807434 0.054745186120271683 0.049874909222126007 -0.023688651621341705 0.21944840252399445 0.022486215457320213 -0.050736267119646072 0.19373321533203125 0.13708688318729401 0.041815280914306641 0.1262250542640686 0.055465292185544968 -0.039324510842561722 -0.10758610814809799 0.069435387849807739 -0.046499088406562805 0.0037423092871904373 0.018216459080576897 -0.058807015419006348 -0.079512886703014374 0.039438962936401367 -0.048778705298900604 -0.026309113949537277 0.17452472448348999 0.17444151639938354 0.13412913680076599 -0.017008582130074501 0.082156702876091003 0.087836124002933502 0.16089606285095215 -0.078967131674289703 0.11852797865867615 -0.12719453871250153 0.048198070377111435 -0.033323593437671661 0.11029116064310074 0.044618174433708191 -0.012297471053898335 -0.16033188998699188 -0.082496896386146545 -0.039702091366052628 0.0061166542582213879 -0.039669137448072433 0.017567463219165802 -0.025685785338282585 0.18231743574142456 0.019817402586340904 0.085110828280448914 0.00064768397714942694 0.08757665753364563 0.1015348955988884 -0.1661670058965683 0.072148166596889496 0.037337727844715118 0.024803653359413147 0.14376899600028992 0.13853685557842255 -0.034124482423067093 0.0087155355140566826 -0.040350217372179031 -0.14297233521938324 0.042245365679264069 0.17153939604759216 0.074314549565315247 -0.10841589421033859 -0.080489508807659149 0.11726924777030945 0.006654001772403717 -0.10788686573505402 0.16579626500606537 -0.042041148990392685 0.018409749493002892 -0.069536566734313965 -0.083872437477111816 0.15388208627700806 -0.056561645120382309 0.15982708334922791 0.11347261071205139 -0.031347602605819702 -0.19323302805423737 -0.042254894971847534 0.018122276291251183 0.026161966845393181 0.14998790621757507 0.1318422257900238 0.15476180613040924 -0.018826620653271675 -0.063444904983043671 -0.022531678900122643 0.0071208016015589237 0.0021050439681857824 0.10747282952070236 0.026632191613316536 -0.15501435101032257 -0.026644378900527954 -0.042104694992303848 -0.063296407461166382 0.0035304129123687744 0.065926231443881989 -0.03182978555560112 0.17370574176311493 0.08989889919757843 0.0053139594383537769 0.0062690270133316517 0.1978682279586792 -0.011617086827754974 -0.033359996974468231 -0.16930577158927917 -0.063522614538669586 -0.097150102257728577 -0.037307135760784149 -0.098067276179790497 0.068015329539775848 0.11206817626953125 0.061076287180185318 0.11523202806711197 -0.10662827640771866 0.15798403322696686 0.042172893881797791 0.02220531553030014 -0.010705640539526939 0.10147043317556381 0.0079579725861549377 0.13283461332321167 0.14627380669116974 0.077252104878425598 -0.10600332170724869 -0.031033461913466454 0.17406108975410461 0.089665688574314117 0.13345929980278015 -0.054031573235988617 0.016956062987446785 -0.043147001415491104 -0.010192204266786575 0.14159685373306274 0.012631459161639214 0.07671065628528595 -0.027379736304283142 -0.048539556562900543 -0.039250217378139496 -0.10891696065664291 0.038214705884456635 -0.032567158341407776 -0.1233467161655426 0.0043343985453248024 0.032803487032651901 -0.067306861281394958 0.10520187765359879 -0.012411885894834995 0.16020113229751587 0.093696333467960358 0.01320941187441349 0.02318299189209938 -0.1175050288438797 0.056140154600143433 0.0098719755187630653 0.11272965371608734 -0.0016596768982708454 0.16610103845596313 -0.13559667766094208 0.17993588745594025 0.076449424028396606 0.057950295507907867 0.17620016634464264 -0.01434563472867012 -0.012286682613193989 -0.22210513055324554 -0.015379615128040314 0.0056022554636001587 0.17986398935317993 0.17152288556098938 -0.2012946605682373 0.15788161754608154 -0.0048699807375669479 -0.0037616435438394547 0.0087036807090044022 0.095242351293563843 0.07403295487165451 0.027195127680897713 0.060496203601360321 0.0045834784395992756 0.1336524486541748 -0.025639047846198082 -0.015079893171787262 0.069643571972846985 0.026656616479158401 0.057565901428461075 0.09418804943561554 0.12428008764982224 0.097909674048423767 0.034523569047451019 -0.038281641900539398 -0.021454963833093643 0.15717735886573792 0.021239548921585083 -0.13638380169868469 0.1302582323551178 0.021047927439212799 0.14269278943538666 0.065131261944770813 0.048907741904258728 0.052823279052972794 0.0097053516656160355 -0.11962695419788361 -0.060997281223535538 -0.12292555719614029 0.1811889111995697 -0.0988621786236763 0.054865553975105286 -0.056995149701833725 -0.092901565134525299 0.038924612104892731 0.012442978098988533 -0.033374406397342682 0.18031778931617737 0.13728320598602295 0.11298469454050064 -0.17726030945777893 0.13659641146659851 0.17871178686618805 0.18561656773090363 0.035301230847835541 -0.04323098435997963 -0.10153396427631378 0.10938666760921478 0.069290325045585632 0.076368376612663269 -0.07067909836769104 0.0077393539249897003 -0.044895928353071213 -0.035991910845041275 -0.058181464672088623 -0.10394275188446045 0.1807180643081665 0.0029477868229150772 -0.18574610352516174 0.1047542616724968 0.11571976542472839 0.0090892026200890541 -0.060495555400848389 0.19703415036201477 0.070337697863578796 -0.0034948913380503654 -0.018982211127877235 0.058259472250938416 0.072897516191005707 0.022689994424581528 0.05475148931145668 0.087151780724525452 0.031324047595262527 -0.048127412796020508 -0.086295031011104584 -0.066093392670154572 0.14198234677314758 0.16818667948246002 -0.11230580508708954 0.090805038809776306 0.070606306195259094 0.16677148640155792 -0.18780785799026489 0.092419706284999847 0.11527550220489502 -0.066327102482318878 0.044295653700828552 -0.11432849615812302 0.093620143830776215 0.20117385685443878 0.17245727777481079 0.078020147979259491 0.096832655370235443 0.070289723575115204 0.14996784925460815 0.049704544246196747 0.099317371845245361 -0.043362028896808624 0.108636274933815 0.13080354034900665 0.15921248495578766 -0.055157952010631561 -0.14289999008178711 0.076965890824794769 0.043847382068634033 -0.03812890499830246 0.15514640510082245 0.034826215356588364 0.11976922303438187 -0.084540687501430511 -0.016701739281415939 -0.066307716071605682 0.13765206933021545 0.180336594581604 0.054766368120908737 0.068437270820140839 0.0085958149284124374 0.036263536661863327 -0.065658614039421082 0.1540185958147049 0.097861096262931824 -0.13726171851158142 -0.032170437276363373 0.013033652678132057 0.00638924865052104 -0.13397791981697083 0.092835955321788788 0.0063932817429304123 -0.01597343385219574 0.14908124506473541 0.026260951533913612 0.12483354657888412 0.0093367034569382668 0.052841611206531525 -0.1305500864982605 0.076576694846153259 -0.034605879336595535 0.11859879642724991 0.1188037171959877 -0.0086518684402108192 -0.1297876387834549 -0.032303657382726669 0.19094887375831604 0.12541039288043976 -0.0085032619535923004 -0.053443673998117447 -0.0062651666812598705 -0.099433235824108124 -0.014640031382441521 0.054854303598403931 0.052026048302650452 0.094531387090682983 0.0082905543968081474 -0.050089370459318161 0.01877734437584877 -0.071658439934253693 -0.044466540217399597 0.1632390022277832 -0.077936753630638123 -0.14667326211929321 0.024626355618238449 -0.1504640132188797 0.16195778548717499 -0.02610744908452034 -0.061640441417694092 0.16786053776741028 0.16158503293991089 -0.035335194319486618 -0.14281782507896423 0.066991426050662994 0.099912345409393311 0.064200937747955322 -0.15143544971942902 0.056482579559087753 -0.048034340143203735 -0.060372933745384216 -0.026510795578360558 -0.01482072751969099 0.16948741674423218 -0.070268623530864716 -0.1018228754401207 -0.094476513564586639 -0.1585613489151001 0.083386972546577454 0.16028563678264618 0.023348201066255569 0.057887684553861618 -0.043519593775272369 0.0040359292179346085 0.15684688091278076 0.059283599257469177 -0.043149761855602264 0.16156388819217682 0.062092438340187073 0.14858846366405487 -0.076048865914344788 0.043388303369283676 0.074347861111164093 0.042753446847200394 0.050572928041219711 -0.033990290015935898 0.0027059756685048342 0.085165925323963165 -0.03874548152089119 -0.041937634348869324 0.13274273276329041 0.045384641736745834 0.013253984041512012 -0.070877306163311005 0.13095080852508545 0.0082930140197277069 0.013970990665256977 0.048857424408197403 0.07767360657453537 -0.11782663315534592 -0.005930368322879076 -0.049262113869190216 0.080087602138519287 0.013157255947589874 0.059414472430944443 -0.0071532856673002243 -0.080862410366535187 0.17546254396438599 -0.028169667348265648 0.025850586593151093 0.10997913032770157 0.082603342831134796 0.15348207950592041 -0.024814654141664505 0.02939700148999691 -0.069212384521961212 -0.039925072342157364 0.17771928012371063 0.013749555684626102 0.015269065275788307 -0.074857279658317566 0.11912243813276291 -0.076364517211914062 0.10174449533224106 -0.0012096385471522808 0.18441268801689148 0.15400820970535278 0.14863130450248718 0.012089021503925323 0.10429231077432632 0.18779012560844421 0.078376270830631256 0.19219191372394562 -0.078039377927780151 -0.046856347471475601 -0.016043158248066902 0.0094312634319067001 0.18234820663928986 -0.10620918869972229 -0.044380892068147659 -0.14912748336791992 -0.041547048836946487 0.10525601357221603 -0.14480812847614288 -0.036281950771808624 0.037551697343587875 -0.048963822424411774 -0.0014846043195575476 -0.018169065937399864 -0.04847051203250885 -0.03579036146402359 0.047513283789157867 0.16937781870365143 -0.0074685085564851761 -0.023259708657860756 0.1659022718667984 0.12969367206096649 0.11803143471479416 -0.085699543356895447 0.14514276385307312 0.12258724123239517 -0.0071045756340026855 0.0016122858505696058 0.098987340927124023 -0.063245669007301331 0.097455307841300964 -0.1036037877202034 -0.064214996993541718 -0.1249270960688591 0.0004953392781317234 0.0050107729621231556 -0.18306119740009308 -0.14953997731208801 0.06128707155585289 -0.11436253041028976 -0.054543454200029373 -0.0044531580060720444 0.017549727112054825 0.16226202249526978 0.10221686214208603 0.095172196626663208 -0.10975059121847153 0.13620726764202118 0.0093738865107297897 0.10259103029966354 -0.16148382425308228 0.18705114722251892 -0.13492238521575928 0.12789285182952881 -0.027397215366363525 -0.0019105856772512197 0.13358147442340851 0.058560911566019058 -0.077593512833118439 -0.14472196996212006 0.014486617408692837 -0.10543230921030045 0.12610551714897156 0.12434180080890656 -0.20495522022247314 0.15370327234268188 -0.076033152639865875 0.17811256647109985 -0.065664149820804596 0.079623609781265259 0.096810035407543182 -0.037047859281301498 0.036283992230892181 -0.0580434650182724 0.12717218697071075 0.051613695919513702 -0.002003686036914587 0.10810084640979767 -0.052077528089284897 0.044212520122528076 -0.11149829626083374 0.04306890070438385 0.20922976732254028 0.050744373351335526 -0.018907798454165459 0.029869403690099716 -0.016547942534089088 0.081498421728610992 0.028867986053228378 -0.0098678609356284142 0.12100593000650406 -0.050459530204534531 0.093701839447021484 -0.064581722021102905 -0.075139142572879791 0.024727065116167068 -0.009434104897081852 0.089644096791744232 0.075986318290233612 0.074468143284320831 0.080994032323360443 0.13843360543251038 0.10109485685825348 0.071918517351150513 -0.012440278194844723 0.13410750031471252 0.066161125898361206 0.13480721414089203 -0.14656008780002594 -0.017683515325188637 0.17962504923343658 0.052554022520780563 0.068927362561225891 -0.031238975003361702 0.004937825258821249 0.054195687174797058 -0.035128515213727951 -0.0011168339988216758 0.15526047348976135 0.17674385011196136 -0.030189020559191704 0.10782621055841446 0.0084135029464960098 -0.0075319567695260048 0.1638341099023819 0.04536978155374527 0.051851879805326462 -0.11676575243473053 0.023530201986432076 -0.10502146184444427 -0.019618235528469086 0.022409705445170403 0.02522747777402401 -0.063799537718296051 -0.097800523042678833 0.083665549755096436 -0.16381137073040009 0.085048362612724304 0.082506969571113586 0.054465033113956451 -0.18558976054191589 -0.075023889541625977 0.05202280730009079 0.071788012981414795 0.11019331961870193 0.075537592172622681 -0.045460812747478485 -0.079571254551410675 0.016352355480194092 -0.0046295430511236191 -0.054846424609422684 0.04831068217754364 0.14369228482246399 -0.062965400516986847 -0.031610004603862762 0.0017766342498362064 0.13449728488922119 0.025253795087337494 0.089241527020931244 -0.0054682809859514236 -0.12132956087589264 0.11071738600730896 -0.073807306587696075 0.040091324597597122 -0.094392448663711548 -0.11979279667139053 -0.015594537369906902 -0.12096314877271652 -0.023405095562338829 0.0011394133325666189 0.012767321430146694 0.11716993153095245 -0.0093841906636953354 -0.036034096032381058 -0.038020756095647812 0.077925264835357666 0.078137077391147614 0.064141139388084412 -0.057588130235671997 0.10871568322181702 -0.078068085014820099 0.014898968860507011 -0.098959147930145264 -0.0085281692445278168 -0.043636254966259003 0.043767489492893219 -0.15347905457019806 -0.069071307778358459 -0.20718316733837128 0.12288551777601242 0.01137230359017849 0.099596798419952393 -0.0046021598391234875 0.21331363916397095 -0.096238419413566589 0.10036396980285645 0.11660214513540268 0.08575727790594101 0.050531066954135895 -0.15051622688770294 0.042249675840139389 -0.1419617086648941 0.13194501399993896 0.12567724287509918 0.069015219807624817 0.093673303723335266 0.038428787142038345 0.14045989513397217 -0.030913662165403366 -0.093086481094360352 0.17477954924106598 0.11550001055002213 -0.1300143301486969 -0.052736874669790268 -0.0012462165905162692 -0.00049321184633299708 -0.0038055418990552425 0.083064451813697815 0.019249662756919861 0.17407785356044769 -0.0037303315475583076 0.13888362050056458 0.039244357496500015 -0.027254793792963028 -0.045885566622018814 0.066822253167629242 0.074320130050182343 -0.050818245857954025 -0.12504896521568298 -0.036467291414737701 -0.10479250550270081 -0.10617056488990784 0.14943495392799377 -0.11701042205095291 -0.11441662907600403 0.1915600448846817 0.10119751840829849 0.020839357748627663 0.051822010427713394 0.13481146097183228 -0.006025469396263361 0.11709416657686234 -0.062338870018720627 0.096097521483898163 0.030221419408917427 -0.014382177963852882 0.020307568833231926 -0.0322684645652771 0.15352949500083923 -0.08073030412197113 -0.13953264057636261 -0.050824053585529327 -0.071299031376838684 -0.022248249500989914 0.16527381539344788 -0.0076059303246438503 -0.11123815178871155 0.16217872500419617 -0.070581875741481781 0.16068367660045624 -0.042558670043945312 0.15763215720653534 -0.027680598199367523 0.072725959122180939 0.04484027624130249 0.12646484375 0.12799562513828278 0.060425259172916412 0.039503399282693863 0.10810574144124985 -0.030941225588321686 0.018153518438339233 -0.0069763492792844772 0.021825337782502174 0.075153261423110962 0.025050636380910873 -0.12951663136482239 -0.031044602394104004 0.042340438812971115 0.042015522718429565 -0.056952256709337234 0.057571999728679657 -0.0056880754418671131 0.14042225480079651 0.051509596407413483 0.078864619135856628 -0.099814698100090027 -0.047944366931915283 0.096468307077884674 0.15633144974708557 0.14786612987518311 -0.023579243570566177 0.13001374900341034 0.114931620657444 -0.033847343176603317 0.03032037615776062 0.056579254567623138 0.1330312192440033 0.077428802847862244 0.04467570036649704 -0.1315864622592926 -0.088475488126277924 -0.03252536803483963 0.15841397643089294 0.0049916785210371017 -0.13711652159690857 -0.031569529324769974 -0.13273991644382477 0.098482400178909302 0.07889239490032196 0.017988545820116997 0.021851953119039536 -0.0009457289706915617 0.066724926233291626 0.045407436788082123 0.054454725235700607 0.18468236923217773 0.13266141712665558 -0.11590549349784851 -0.1171378418803215 -0.0013135581975802779 -0.072019226849079132 0.14862602949142456 -0.055982913821935654 0.11419903486967087 0.065801024436950684 0.0088652735576033592 0.10670296847820282 -0.02414865605533123 -0.024828238412737846 0.046016119420528412 0.029101964086294174 -0.21430151164531708 0.16719548404216766 0.07871757447719574 0.045565903186798096 -0.038776375353336334 -0.039668552577495575 0.013107028789818287 -0.11309958249330521 0.11735448241233826 0.079719074070453644 0.13594405353069305 -0.0022528073750436306 0.021945679560303688 -0.018633531406521797 0.12704099714756012 0.10308380424976349 -0.071147054433822632 0.014377201907336712 0.13828766345977783 0.13292092084884644 0.0034821743611246347 0.081219330430030823 0.149746373295784 -0.1994660496711731 0.13437646627426147 0.064400851726531982 0.088184840977191925 -0.012246193364262581 0.13791878521442413 0.17276471853256226 -0.067919626832008362 -0.079007722437381744 -0.044453360140323639 -0.043758600950241089 0.14944709837436676 0.085522696375846863 0.11954555660486221 -0.004283723421394825 0.029825475066900253 0.0068036438897252083 0.13788342475891113 0.069303736090660095 0.15552486479282379 -0.014272428117692471 0.021785853430628777 0.16877555847167969 0.17088037729263306 0.084789365530014038 0.011020836420357227 -0.044113218784332275 -0.036409139633178711 -0.11595558375120163 0.15572172403335571 -0.10790744423866272 0.12259817868471146 0.052290394902229309 -0.030663816258311272 -0.051780395209789276 -0.082566425204277039 0.10268983244895935 -0.091177895665168762 0.19625771045684814 0.087498173117637634 -0.10829619318246841 -0.070404358208179474 0.027700381353497505 -0.030482446774840355 -0.013544252142310143 0.12307325750589371 0.15669262409210205 0.062698505818843842 -0.12229646742343903 0.036309041082859039 0.0011127291945740581 -0.0048556569963693619 -0.15936356782913208 -0.055255424231290817 -0.065163448452949524 -0.030858265236020088 0.020828496664762497 -0.026267969980835915 -0.042204964905977249 -0.08526591956615448 -0.017960488796234131 -0.01013307087123394 0.012320961803197861 0.020616155117750168 -0.11463405191898346 -0.10512681305408478 -0.10208375006914139 -0.090941175818443298 0.11034255474805832 -0.061178997159004211 -0.055243924260139465 -0.12557733058929443 0.04269019141793251 -0.0045862193219363689 0.045592159032821655 -0.12159919738769531 0.034099496901035309 -0.092521309852600098 -0.13941968977451324 -0.12831039726734161 0.098320618271827698 -0.021492337808012962 0.089261516928672791 -0.11629609763622284 0.094482719898223877 -0.063098222017288208 0.010940141975879669 -0.079981476068496704 0.055115703493356705 0.09255535900592804 -0.073804169893264771 -0.020108455792069435 0.085714265704154968 0.065382204949855804 -0.10741712898015976 -0.086963392794132233 -0.036387193948030472 -0.087399721145629883 -0.047851491719484329 -0.020502965897321701 -0.099237710237503052 -0.11677607893943787 -0.12183161824941635 0.069524839520454407 -0.055905628949403763 0.020841997116804123 -0.11083380132913589 -0.080689780414104462 0.089949727058410645 -0.11809443682432175 -0.023934919387102127 0.087589584290981293 -0.14032885432243347 0.088050007820129395 -0.0017477266956120729 -0.0051505807787179947 0.033728837966918945 -0.01520186010748148 0.072033114731311798 0.066583767533302307 0.15708461403846741 0.15348921716213226 0.031249303370714188 0.16848874092102051 -0.048892363905906677 -0.034658148884773254 0.010136005468666553 0.10458160936832428 0.044597584754228592 -0.14247232675552368 -0.10917657613754272 -0.087666146457195282 0.028158962726593018 0.17995968461036682 -0.06176232174038887 0.036223240196704865 0.00840794388204813 0.083986319601535797 -0.014779125340282917 -0.077984519302845001 0.12213660031557083 -0.059319324791431427 0.060246504843235016 0.035981599241495132 0.10189025849103928 -0.11589424312114716 -0.0015768690500408411 -0.0086710350587964058 0.041595630347728729 0.051581744104623795 0.12408795952796936 -0.16067886352539062 -0.026727408170700073 -0.07956407219171524 -0.096514984965324402 0.014243200421333313 -0.03583730012178421 -0.061569344252347946 0.12146367877721786 0.036099452525377274 0.04957117885351181 0.013634364120662212 0.19630494713783264 0.03122732974588871 -0.10684711486101151 0.12557056546211243 -0.091061905026435852 0.16671323776245117 0.15104836225509644 0.18706220388412476 0.17373357713222504 0.1347668319940567 -0.043718375265598297 -0.14678920805454254 -0.073686592280864716 0.16344764828681946 0.15179242193698883 -0.12341432273387909 -0.056157983839511871 0.0072390791028738022 0.13749334216117859 -0.20290111005306244 0.070715270936489105
b1 0.14310663938522339 0.13989052176475525 0.0046448791399598122 0.024791816249489784 0.047259483486413956 0.055303771048784256 0.18609187006950378 0.11302933096885681 0.19134832918643951 0.14266662299633026 -0.005895144771784544 -0.028791837394237518 -0.017203520983457565 0.023009074851870537 -0.087063334882259369 0.044260758906602859 0.010053375735878944 0.15028001368045807 0.074698381125926971 -0.04651496559381485 0.0024013766087591648 -0.086107984185218811 0.16009089350700378 -0.012297782115638256 0.15724615752696991 -0.0084235062822699547 0.13887827098369598 0.11912427097558975 0.10727997124195099 0.0050949682481586933 0.015561128035187721 -0.05535515770316124
w2 -0.23280315101146698 -0.18050281703472137 0.25344455242156982 0.22859485447406769 -0.17826096713542938 -0.24856768548488617 0.13367593288421631 -0.089026674628257751 0.07993895560503006 -0.09542422741651535 0.12230940908193588 0.025445574894547462 0.074156783521175385 -0.090989463031291962 -0.030722055584192276 0.14808686077594757 0.092167012393474579 -0.20840632915496826 0.23287637531757355 -0.11958905309438705 -0.19644907116889954 0.14558029174804688 -0.14061014354228973 0.089758075773715973 -0.19314204156398773 0.12102985382080078 -0.16937808692455292 -0.11705560237169266 0.16382978856563568 0.12185878306627274 0.10285506397485733 -0.18027679622173309
b2 -0.081097319722175598
